digraph Tree {
node [shape=box, style="filled, rounded", color="black", fontname="helvetica"] ;
edge [fontname="helvetica"] ;
0 [label=<CDRSB &le; 0.25<br/>gini = 0.75<br/>samples = 1934<br/>value = [483.5, 483.5, 483.5, 483.5]<br/>class = 2>, fillcolor="#ffffff"] ;
1 [label=<RAVLT_immediate &le; 27.5<br/>gini = 0.041<br/>samples = 670<br/>value = [447.086, 8.634, 0.882, 0.0]<br/>class = 0>, fillcolor="#e6843d"] ;
0 -> 1 [labeldistance=2.5, labelangle=45, headlabel="True"] ;
2 [label=<PTAU/ABETA &le; 0.018<br/>gini = 0.264<br/>samples = 25<br/>value = [15.51, 2.878, 0.0, 0.0]<br/>class = 0>, fillcolor="#ea985e"] ;
1 -> 2 ;
3 [label=<gini = 0.0<br/>samples = 15<br/>value = [10.115, 0.0, 0.0, 0.0]<br/>class = 0>, fillcolor="#e58139"] ;
2 -> 3 ;
4 [label=<gini = 0.454<br/>samples = 10<br/>value = [5.395, 2.878, 0.0, 0.0]<br/>class = 0>, fillcolor="#f3c4a3"] ;
2 -> 4 ;
5 [label=<MOCA &le; 23.5<br/>gini = 0.03<br/>samples = 645<br/>value = [431.576, 5.756, 0.882, 0.0]<br/>class = 0>, fillcolor="#e5833c"] ;
1 -> 5 ;
6 [label=<PTAU/ABETA &le; 0.02<br/>gini = 0.158<br/>samples = 87<br/>value = [55.97, 4.317, 0.882, 0.0]<br/>class = 0>, fillcolor="#e78d4b"] ;
5 -> 6 ;
7 [label=<gini = 0.0<br/>samples = 55<br/>value = [37.089, 0.0, 0.0, 0.0]<br/>class = 0>, fillcolor="#e58139"] ;
6 -> 7 ;
8 [label=<mPACCdigit &le; -1.128<br/>gini = 0.352<br/>samples = 32<br/>value = [18.881, 4.317, 0.882, 0.0]<br/>class = 0>, fillcolor="#eca26d"] ;
6 -> 8 ;
9 [label=<gini = 0.506<br/>samples = 17<br/>value = [8.766, 4.317, 0.882, 0.0]<br/>class = 0>, fillcolor="#f3c5a4"] ;
8 -> 9 ;
10 [label=<gini = 0.0<br/>samples = 15<br/>value = [10.115, 0.0, 0.0, 0.0]<br/>class = 0>, fillcolor="#e58139"] ;
8 -> 10 ;
11 [label=<mPACCdigit &le; 4.708<br/>gini = 0.008<br/>samples = 558<br/>value = [375.606, 1.439, 0.0, 0.0]<br/>class = 0>, fillcolor="#e5813a"] ;
5 -> 11 ;
12 [label=<gini = 0.0<br/>samples = 548<br/>value = [369.537, 0.0, 0.0, 0.0]<br/>class = 0>, fillcolor="#e58139"] ;
11 -> 12 ;
13 [label=<gini = 0.31<br/>samples = 10<br/>value = [6.069, 1.439, 0.0, 0.0]<br/>class = 0>, fillcolor="#eb9f68"] ;
11 -> 13 ;
14 [label=<LDELTOTAL &le; 4.5<br/>gini = 0.682<br/>samples = 1264<br/>value = [36.414, 474.866, 482.618, 483.5]<br/>class = 3>, fillcolor="#ffffff"] ;
0 -> 14 [labeldistance=2.5, labelangle=-45, headlabel="False"] ;
15 [label=<CDRSB &le; 3.25<br/>gini = 0.481<br/>samples = 641<br/>value = [0.0, 0.0, 297.335, 441.393]<br/>class = 3>, fillcolor="#f2bef7"] ;
14 -> 15 ;
16 [label=<mPACCdigit &le; -10.749<br/>gini = 0.384<br/>samples = 370<br/>value = [0.0, 0.0, 269.101, 94.377]<br/>class = 2>, fillcolor="#7ebfee"] ;
15 -> 16 ;
17 [label=<FAQ &le; 2.5<br/>gini = 0.499<br/>samples = 149<br/>value = [0.0, 0.0, 79.407, 85.665]<br/>class = 3>, fillcolor="#fcf1fd"] ;
16 -> 17 ;
18 [label=<mPACCdigit &le; -13.994<br/>gini = 0.288<br/>samples = 44<br/>value = [0.0, 0.0, 34.41, 7.26]<br/>class = 2>, fillcolor="#63b2ea"] ;
17 -> 18 ;
19 [label=<gini = 0.499<br/>samples = 10<br/>value = [0.0, 0.0, 5.294, 5.808]<br/>class = 3>, fillcolor="#fbedfd"] ;
18 -> 19 ;
20 [label=<EcogSPMem &le; 2.586<br/>gini = 0.09<br/>samples = 34<br/>value = [0.0, 0.0, 29.116, 1.452]<br/>class = 2>, fillcolor="#43a2e6"] ;
18 -> 20 ;
21 [label=<gini = 0.0<br/>samples = 24<br/>value = [0.0, 0.0, 21.175, 0.0]<br/>class = 2>, fillcolor="#399de5"] ;
20 -> 21 ;
22 [label=<gini = 0.261<br/>samples = 10<br/>value = [0.0, 0.0, 7.941, 1.452]<br/>class = 2>, fillcolor="#5dafea"] ;
20 -> 22 ;
23 [label=<MMSE &le; 23.5<br/>gini = 0.463<br/>samples = 105<br/>value = [0.0, 0.0, 44.997, 78.405]<br/>class = 3>, fillcolor="#eeabf4"] ;
17 -> 23 ;
24 [label=<TRABSCOR &le; 151.5<br/>gini = 0.162<br/>samples = 29<br/>value = [0.0, 0.0, 3.529, 36.299]<br/>class = 3>, fillcolor="#db4ce8"] ;
23 -> 24 ;
25 [label=<gini = 0.335<br/>samples = 13<br/>value = [0.0, 0.0, 3.529, 13.068]<br/>class = 3>, fillcolor="#e26eec"] ;
24 -> 25 ;
26 [label=<gini = 0.0<br/>samples = 16<br/>value = [0.0, 0.0, 0.0, 23.231]<br/>class = 3>, fillcolor="#d739e5"] ;
24 -> 26 ;
27 [label=<EcogSPOrgan &le; 1.863<br/>gini = 0.5<br/>samples = 76<br/>value = [0.0, 0.0, 41.468, 42.107]<br/>class = 3>, fillcolor="#fefcff"] ;
23 -> 27 ;
28 [label=<mPACCdigit &le; -12.557<br/>gini = 0.38<br/>samples = 25<br/>value = [0.0, 0.0, 7.941, 23.231]<br/>class = 3>, fillcolor="#e57dee"] ;
27 -> 28 ;
29 [label=<gini = 0.108<br/>samples = 11<br/>value = [0.0, 0.0, 0.882, 14.52]<br/>class = 3>, fillcolor="#d945e7"] ;
28 -> 29 ;
30 [label=<gini = 0.495<br/>samples = 14<br/>value = [0.0, 0.0, 7.058, 8.712]<br/>class = 3>, fillcolor="#f7d9fa"] ;
28 -> 30 ;
31 [label=<EcogPtDivatt &le; 2.4<br/>gini = 0.461<br/>samples = 51<br/>value = [0.0, 0.0, 33.527, 18.875]<br/>class = 2>, fillcolor="#a8d4f4"] ;
27 -> 31 ;
32 [label=<FAQ &le; 9.5<br/>gini = 0.491<br/>samples = 41<br/>value = [0.0, 0.0, 24.704, 18.875]<br/>class = 2>, fillcolor="#d0e8f9"] ;
31 -> 32 ;
33 [label=<ADAS13 &le; 24.5<br/>gini = 0.373<br/>samples = 24<br/>value = [0.0, 0.0, 17.646, 5.808]<br/>class = 2>, fillcolor="#7abdee"] ;
32 -> 33 ;
34 [label=<gini = 0.5<br/>samples = 11<br/>value = [0.0, 0.0, 6.176, 5.808]<br/>class = 2>, fillcolor="#f3f9fd"] ;
33 -> 34 ;
35 [label=<gini = -0.0<br/>samples = 13<br/>value = [0.0, 0.0, 11.47, 0.0]<br/>class = 2>, fillcolor="#399de5"] ;
33 -> 35 ;
36 [label=<gini = 0.455<br/>samples = 17<br/>value = [0.0, 0.0, 7.058, 13.068]<br/>class = 3>, fillcolor="#eda4f3"] ;
32 -> 36 ;
37 [label=<gini = 0.0<br/>samples = 10<br/>value = [0.0, 0.0, 8.823, 0.0]<br/>class = 2>, fillcolor="#399de5"] ;
31 -> 37 ;
38 [label=<FAQ &le; 4.5<br/>gini = 0.084<br/>samples = 221<br/>value = [0.0, 0.0, 189.694, 8.712]<br/>class = 2>, fillcolor="#42a2e6"] ;
16 -> 38 ;
39 [label=<AGE &le; 62.5<br/>gini = 0.0<br/>samples = 145<br/>value = [0.0, 0.0, 127.933, 0.0]<br/>class = 2>, fillcolor="#399de5"] ;
38 -> 39 ;
40 [label=<gini = 0.0<br/>samples = 16<br/>value = [0.0, 0.0, 14.117, 0.0]<br/>class = 2>, fillcolor="#399de5"] ;
39 -> 40 ;
41 [label=<gini = 0.0<br/>samples = 129<br/>value = [0.0, 0.0, 113.817, 0.0]<br/>class = 2>, fillcolor="#399de5"] ;
39 -> 41 ;
42 [label=<MMSE &le; 26.5<br/>gini = 0.217<br/>samples = 76<br/>value = [0.0, 0.0, 61.761, 8.712]<br/>class = 2>, fillcolor="#55abe9"] ;
38 -> 42 ;
43 [label=<gini = 0.446<br/>samples = 17<br/>value = [0.0, 0.0, 11.47, 5.808]<br/>class = 2>, fillcolor="#9dcff2"] ;
42 -> 43 ;
44 [label=<FDG &le; 1.075<br/>gini = 0.103<br/>samples = 59<br/>value = [0.0, 0.0, 50.291, 2.904]<br/>class = 2>, fillcolor="#44a3e7"] ;
42 -> 44 ;
45 [label=<gini = 0.283<br/>samples = 18<br/>value = [0.0, 0.0, 14.117, 2.904]<br/>class = 2>, fillcolor="#62b1ea"] ;
44 -> 45 ;
46 [label=<gini = -0.0<br/>samples = 41<br/>value = [0.0, 0.0, 36.174, 0.0]<br/>class = 2>, fillcolor="#399de5"] ;
44 -> 46 ;
47 [label=<MMSE &le; 26.5<br/>gini = 0.139<br/>samples = 271<br/>value = [0.0, 0.0, 28.234, 347.017]<br/>class = 3>, fillcolor="#da49e7"] ;
15 -> 47 ;
48 [label=<EcogSPMem &le; 2.436<br/>gini = 0.08<br/>samples = 254<br/>value = [0.0, 0.0, 14.999, 344.113]<br/>class = 3>, fillcolor="#d942e6"] ;
47 -> 48 ;
49 [label=<gini = 0.453<br/>samples = 15<br/>value = [0.0, 0.0, 6.176, 11.616]<br/>class = 3>, fillcolor="#eca2f3"] ;
48 -> 49 ;
50 [label=<MMSE &le; 24.5<br/>gini = 0.05<br/>samples = 239<br/>value = [0.0, 0.0, 8.823, 332.497]<br/>class = 3>, fillcolor="#d83ee6"] ;
48 -> 50 ;
51 [label=<EcogSPVisspat &le; 1.49<br/>gini = 0.007<br/>samples = 175<br/>value = [0.0, 0.0, 0.882, 252.64]<br/>class = 3>, fillcolor="#d73ae5"] ;
50 -> 51 ;
52 [label=<gini = 0.118<br/>samples = 10<br/>value = [0.0, 0.0, 0.882, 13.068]<br/>class = 3>, fillcolor="#da46e7"] ;
51 -> 52 ;
53 [label=<gini = 0.0<br/>samples = 165<br/>value = [0.0, 0.0, 0.0, 239.572]<br/>class = 3>, fillcolor="#d739e5"] ;
51 -> 53 ;
54 [label=<CDRSB &le; 4.25<br/>gini = 0.165<br/>samples = 64<br/>value = [0.0, 0.0, 7.941, 79.857]<br/>class = 3>, fillcolor="#db4de8"] ;
50 -> 54 ;
55 [label=<LDELTOTAL &le; 0.5<br/>gini = 0.296<br/>samples = 30<br/>value = [0.0, 0.0, 7.058, 31.943]<br/>class = 3>, fillcolor="#e065eb"] ;
54 -> 55 ;
56 [label=<gini = 0.085<br/>samples = 14<br/>value = [0.0, 0.0, 0.882, 18.875]<br/>class = 3>, fillcolor="#d942e6"] ;
55 -> 56 ;
57 [label=<gini = 0.436<br/>samples = 16<br/>value = [0.0, 0.0, 6.176, 13.068]<br/>class = 3>, fillcolor="#ea97f1"] ;
55 -> 57 ;
58 [label=<Fusiform/ICV &le; 0.011<br/>gini = 0.036<br/>samples = 34<br/>value = [0.0, 0.0, 0.882, 47.914]<br/>class = 3>, fillcolor="#d83de5"] ;
54 -> 58 ;
59 [label=<PTAU/ABETA &le; 0.044<br/>gini = 0.0<br/>samples = 24<br/>value = [0.0, 0.0, 0.0, 34.847]<br/>class = 3>, fillcolor="#d739e5"] ;
58 -> 59 ;
60 [label=<gini = 0.0<br/>samples = 10<br/>value = [0.0, 0.0, 0.0, 14.52]<br/>class = 3>, fillcolor="#d739e5"] ;
59 -> 60 ;
61 [label=<gini = 0.0<br/>samples = 14<br/>value = [0.0, 0.0, 0.0, 20.327]<br/>class = 3>, fillcolor="#d739e5"] ;
59 -> 61 ;
62 [label=<gini = 0.118<br/>samples = 10<br/>value = [0.0, 0.0, 0.882, 13.068]<br/>class = 3>, fillcolor="#da46e7"] ;
58 -> 62 ;
63 [label=<gini = 0.295<br/>samples = 17<br/>value = [0.0, 0.0, 13.234, 2.904]<br/>class = 2>, fillcolor="#64b3eb"] ;
47 -> 63 ;
64 [label=<LDELTOTAL &le; 8.5<br/>gini = 0.518<br/>samples = 623<br/>value = [36.414, 474.866, 185.283, 42.107]<br/>class = 1>, fillcolor="#9ff197"] ;
14 -> 64 ;
65 [label=<PTEDUCAT &le; 15.5<br/>gini = 0.592<br/>samples = 340<br/>value = [4.72, 142.46, 183.518, 37.751]<br/>class = 2>, fillcolor="#dbedfa"] ;
64 -> 65 ;
66 [label=<EcogSPOrgan &le; 2.45<br/>gini = 0.173<br/>samples = 111<br/>value = [4.72, 138.143, 3.529, 5.808]<br/>class = 1>, fillcolor="#59e74c"] ;
65 -> 66 ;
67 [label=<WholeBrain/ICV &le; 0.658<br/>gini = 0.12<br/>samples = 96<br/>value = [4.72, 122.314, 3.529, 0.0]<br/>class = 1>, fillcolor="#53e746"] ;
66 -> 67 ;
68 [label=<gini = 0.364<br/>samples = 12<br/>value = [0.674, 11.512, 2.647, 0.0]<br/>class = 1>, fillcolor="#79ec6f"] ;
67 -> 68 ;
69 [label=<CDRSB &le; 0.75<br/>gini = 0.082<br/>samples = 84<br/>value = [4.046, 110.802, 0.882, 0.0]<br/>class = 1>, fillcolor="#4fe642"] ;
67 -> 69 ;
70 [label=<RAVLT_perc_forgetting &le; 36.667<br/>gini = 0.244<br/>samples = 23<br/>value = [4.046, 24.463, 0.0, 0.0]<br/>class = 1>, fillcolor="#65e95a"] ;
69 -> 70 ;
71 [label=<gini = -0.0<br/>samples = 12<br/>value = [0.0, 17.268, 0.0, 0.0]<br/>class = 1>, fillcolor="#47e539"] ;
70 -> 71 ;
72 [label=<gini = 0.461<br/>samples = 11<br/>value = [4.046, 7.195, 0.0, 0.0]<br/>class = 1>, fillcolor="#aef4a8"] ;
70 -> 72 ;
73 [label=<WholeBrain/ICV &le; 0.681<br/>gini = 0.02<br/>samples = 61<br/>value = [0.0, 86.339, 0.882, 0.0]<br/>class = 1>, fillcolor="#49e53b"] ;
69 -> 73 ;
74 [label=<gini = 0.119<br/>samples = 10<br/>value = [0.0, 12.951, 0.882, 0.0]<br/>class = 1>, fillcolor="#54e746"] ;
73 -> 74 ;
75 [label=<PTGENDER &le; 0.5<br/>gini = 0.0<br/>samples = 51<br/>value = [0.0, 73.388, 0.0, 0.0]<br/>class = 1>, fillcolor="#47e539"] ;
73 -> 75 ;
76 [label=<gini = 0.0<br/>samples = 35<br/>value = [0.0, 50.365, 0.0, 0.0]<br/>class = 1>, fillcolor="#47e539"] ;
75 -> 76 ;
77 [label=<gini = 0.0<br/>samples = 16<br/>value = [0.0, 23.024, 0.0, 0.0]<br/>class = 1>, fillcolor="#47e539"] ;
75 -> 77 ;
78 [label=<gini = 0.393<br/>samples = 15<br/>value = [0.0, 15.829, 0.0, 5.808]<br/>class = 1>, fillcolor="#8bef82"] ;
66 -> 78 ;
79 [label=<mPACCdigit &le; -8.409<br/>gini = 0.285<br/>samples = 229<br/>value = [0.0, 4.317, 179.989, 31.943]<br/>class = 2>, fillcolor="#60b0ea"] ;
65 -> 79 ;
80 [label=<CDRSB &le; 2.75<br/>gini = 0.5<br/>samples = 54<br/>value = [0.0, 0.0, 29.116, 30.491]<br/>class = 3>, fillcolor="#fdf6fe"] ;
79 -> 80 ;
81 [label=<MidTemp/ICV &le; 0.013<br/>gini = 0.407<br/>samples = 36<br/>value = [0.0, 0.0, 25.587, 10.164]<br/>class = 2>, fillcolor="#88c4ef"] ;
80 -> 81 ;
82 [label=<MidTemp/ICV &le; 0.012<br/>gini = 0.226<br/>samples = 24<br/>value = [0.0, 0.0, 19.411, 2.904]<br/>class = 2>, fillcolor="#57ace9"] ;
81 -> 82 ;
83 [label=<gini = 0.413<br/>samples = 10<br/>value = [0.0, 0.0, 7.058, 2.904]<br/>class = 2>, fillcolor="#8ac5f0"] ;
82 -> 83 ;
84 [label=<gini = -0.0<br/>samples = 14<br/>value = [0.0, 0.0, 12.352, 0.0]<br/>class = 2>, fillcolor="#399de5"] ;
82 -> 84 ;
85 [label=<gini = 0.497<br/>samples = 12<br/>value = [0.0, 0.0, 6.176, 7.26]<br/>class = 3>, fillcolor="#f9e1fb"] ;
81 -> 85 ;
86 [label=<gini = 0.252<br/>samples = 18<br/>value = [0.0, 0.0, 3.529, 20.327]<br/>class = 3>, fillcolor="#de5bea"] ;
80 -> 86 ;
87 [label=<Fusiform/ICV &le; 0.014<br/>gini = 0.071<br/>samples = 175<br/>value = [0.0, 4.317, 150.873, 1.452]<br/>class = 2>, fillcolor="#40a1e6"] ;
79 -> 87 ;
88 [label=<FAQ &le; 9.5<br/>gini = 0.039<br/>samples = 165<br/>value = [0.0, 1.439, 143.815, 1.452]<br/>class = 2>, fillcolor="#3d9fe6"] ;
87 -> 88 ;
89 [label=<MidTemp/ICV &le; 0.015<br/>gini = 0.021<br/>samples = 155<br/>value = [0.0, 1.439, 135.874, 0.0]<br/>class = 2>, fillcolor="#3b9ee5"] ;
88 -> 89 ;
90 [label=<gini = -0.0<br/>samples = 134<br/>value = [0.0, 0.0, 118.228, 0.0]<br/>class = 2>, fillcolor="#399de5"] ;
89 -> 90 ;
91 [label=<PTAU/ABETA &le; 0.019<br/>gini = 0.139<br/>samples = 21<br/>value = [0.0, 1.439, 17.646, 0.0]<br/>class = 2>, fillcolor="#49a5e7"] ;
89 -> 91 ;
92 [label=<gini = 0.26<br/>samples = 10<br/>value = [0.0, 1.439, 7.941, 0.0]<br/>class = 2>, fillcolor="#5dafea"] ;
91 -> 92 ;
93 [label=<gini = -0.0<br/>samples = 11<br/>value = [0.0, 0.0, 9.705, 0.0]<br/>class = 2>, fillcolor="#399de5"] ;
91 -> 93 ;
94 [label=<gini = 0.261<br/>samples = 10<br/>value = [0.0, 0.0, 7.941, 1.452]<br/>class = 2>, fillcolor="#5dafea"] ;
88 -> 94 ;
95 [label=<gini = 0.411<br/>samples = 10<br/>value = [0.0, 2.878, 7.058, 0.0]<br/>class = 2>, fillcolor="#8ac5f0"] ;
87 -> 95 ;
96 [label=<LDELTOTAL &le; 11.5<br/>gini = 0.186<br/>samples = 283<br/>value = [31.694, 332.406, 1.765, 4.356]<br/>class = 1>, fillcolor="#5ce84f"] ;
64 -> 96 ;
97 [label=<WholeBrain/ICV &le; 0.627<br/>gini = 0.103<br/>samples = 235<br/>value = [12.138, 306.504, 0.882, 4.356]<br/>class = 1>, fillcolor="#51e644"] ;
96 -> 97 ;
98 [label=<gini = 0.514<br/>samples = 12<br/>value = [3.372, 8.634, 0.0, 1.452]<br/>class = 1>, fillcolor="#9ff198"] ;
97 -> 98 ;
99 [label=<PTEDUCAT &le; 13.5<br/>gini = 0.078<br/>samples = 223<br/>value = [8.766, 297.871, 0.882, 2.904]<br/>class = 1>, fillcolor="#4fe641"] ;
97 -> 99 ;
100 [label=<gini = 0.368<br/>samples = 16<br/>value = [2.023, 15.829, 0.882, 1.452]<br/>class = 1>, fillcolor="#73eb68"] ;
99 -> 100 ;
101 [label=<Ventricles/ICV &le; 0.048<br/>gini = 0.055<br/>samples = 207<br/>value = [6.743, 282.042, 0.0, 1.452]<br/>class = 1>, fillcolor="#4ce63f"] ;
99 -> 101 ;
102 [label=<CDRSB &le; 0.75<br/>gini = 0.034<br/>samples = 192<br/>value = [4.72, 266.213, 0.0, 0.0]<br/>class = 1>, fillcolor="#4ae53d"] ;
101 -> 102 ;
103 [label=<Fusiform/ICV &le; 0.013<br/>gini = 0.093<br/>samples = 61<br/>value = [4.046, 79.144, 0.0, 0.0]<br/>class = 1>, fillcolor="#50e643"] ;
102 -> 103 ;
104 [label=<gini = 0.0<br/>samples = 31<br/>value = [0.0, 44.609, 0.0, 0.0]<br/>class = 1>, fillcolor="#47e539"] ;
103 -> 104 ;
105 [label=<PTAU/ABETA &le; 0.023<br/>gini = 0.188<br/>samples = 30<br/>value = [4.046, 34.536, 0.0, 0.0]<br/>class = 1>, fillcolor="#5de850"] ;
103 -> 105 ;
106 [label=<PTAU/ABETA &le; 0.012<br/>gini = 0.279<br/>samples = 20<br/>value = [4.046, 20.146, 0.0, 0.0]<br/>class = 1>, fillcolor="#6cea61"] ;
105 -> 106 ;
107 [label=<gini = 0.094<br/>samples = 10<br/>value = [0.674, 12.951, 0.0, 0.0]<br/>class = 1>, fillcolor="#51e643"] ;
106 -> 107 ;
108 [label=<gini = 0.435<br/>samples = 10<br/>value = [3.372, 7.195, 0.0, 0.0]<br/>class = 1>, fillcolor="#9df196"] ;
106 -> 108 ;
109 [label=<gini = 0.0<br/>samples = 10<br/>value = [0.0, 14.39, 0.0, 0.0]<br/>class = 1>, fillcolor="#47e539"] ;
105 -> 109 ;
110 [label=<WholeBrain/ICV &le; 0.758<br/>gini = 0.007<br/>samples = 131<br/>value = [0.674, 187.068, 0.0, 0.0]<br/>class = 1>, fillcolor="#48e53a"] ;
102 -> 110 ;
111 [label=<gini = 0.0<br/>samples = 121<br/>value = [0.0, 174.118, 0.0, 0.0]<br/>class = 1>, fillcolor="#47e539"] ;
110 -> 111 ;
112 [label=<gini = 0.094<br/>samples = 10<br/>value = [0.674, 12.951, 0.0, 0.0]<br/>class = 1>, fillcolor="#51e643"] ;
110 -> 112 ;
113 [label=<gini = 0.311<br/>samples = 15<br/>value = [2.023, 15.829, 0.0, 1.452]<br/>class = 1>, fillcolor="#6cea61"] ;
101 -> 113 ;
114 [label=<CDRSB &le; 0.75<br/>gini = 0.509<br/>samples = 48<br/>value = [19.556, 25.902, 0.882, 0.0]<br/>class = 1>, fillcolor="#d3f9d0"] ;
96 -> 114 ;
115 [label=<Entorhinal/ICV &le; 0.003<br/>gini = 0.303<br/>samples = 31<br/>value = [18.881, 4.317, 0.0, 0.0]<br/>class = 0>, fillcolor="#eb9e66"] ;
114 -> 115 ;
116 [label=<gini = 0.465<br/>samples = 14<br/>value = [7.418, 4.317, 0.0, 0.0]<br/>class = 0>, fillcolor="#f4caac"] ;
115 -> 116 ;
117 [label=<gini = -0.0<br/>samples = 17<br/>value = [11.464, 0.0, 0.0, 0.0]<br/>class = 0>, fillcolor="#e58139"] ;
115 -> 117 ;
118 [label=<gini = 0.128<br/>samples = 17<br/>value = [0.674, 21.585, 0.882, 0.0]<br/>class = 1>, fillcolor="#54e747"] ;
114 -> 118 ;
}